<?xml version="1.0"?>
<opencv_storage>
<my_svm type_id="opencv-ml-svm">
  <svm_type>C_SVC</svm_type>
  <kernel><type>LINEAR</type></kernel>
  <C>1.0000000000000001e-001</C>
  <term_criteria><epsilon>2.2204460492503131e-016</epsilon>
    <iterations>100000</iterations></term_criteria>
  <var_all>3776</var_all>
  <var_count>3776</var_count>
  <class_count>2</class_count>
  <class_labels type_id="opencv-matrix">
    <rows>1</rows>
    <cols>2</cols>
    <dt>i</dt>
    <data>
      0 1</data></class_labels>
  <sv_total>1</sv_total>
  <support_vectors>
    <_>
      -5.19459485e-004 1.12588238e-003 -7.88790567e-006 1.63819001e-003
      -1.96699024e-004 6.17610291e-004 3.03753273e-004 -5.30120917e-004
      6.09021750e-004 7.46263890e-004 1.32184173e-003 1.25224236e-003
      1.00622559e-003 -4.57860390e-003 -1.03569211e-004 6.38448866e-004
      -2.21690605e-003 4.80844872e-004 1.36938415e-005 -2.41586962e-003
      -5.35615766e-003 -2.43432267e-004 -1.58068928e-004 4.63950535e-004
      -7.59765026e-005 -1.06295582e-003 -1.22518884e-003 1.72691734e-003
      5.25511976e-004 0. -6.77972130e-005 5.73992322e-004
      -5.99152292e-004 3.15721030e-004 5.12482016e-004 -1.47968554e-003
      3.42639687e-005 -4.56919224e-004 4.99917055e-003 -4.34661953e-004
      1.38207967e-003 5.15481865e-004 -1.66727350e-005 1.84123593e-004
      -2.79420929e-004 3.71389819e-004 -5.80797438e-004 -6.66909400e-005
      -1.98149373e-005 -6.53576106e-004 5.30084872e-005 7.09629385e-004
      -8.14113067e-004 9.26175213e-004 8.96159618e-004 -5.05002623e-004
      -4.43708210e-004 -1.21618505e-003 2.38101813e-003 6.49358961e-004
      -1.11182872e-003 1.07459375e-004 1.02508802e-003 9.49184294e-004
      -2.88324803e-003 2.19079200e-003 2.19086040e-004 -6.36406257e-005
      -3.52935080e-004 -6.10501738e-004 -2.33044077e-004 0.
      -3.59461235e-004 2.66508642e-003 3.99897061e-003 0. 0. 0.
      2.71730882e-004 2.76430423e-004 -7.73355205e-005 0. 0. 0.
      -8.76656759e-006 -8.76656759e-006 -3.79019621e-005
      -1.05900435e-004 -8.76656759e-006 -1.17379823e-003
      -1.68663962e-003 -5.72756212e-003 3.26529401e-003 1.40094978e-003
      -5.84113004e-004 2.09562888e-004 8.66021321e-004 -2.06079171e-003
      6.57208438e-004 9.47612920e-004 2.22680173e-004 0.
      -2.88374169e-004 1.03321963e-003 -5.75790706e-004 -5.24710282e-004
      0. -2.54393017e-005 2.10319471e-004 2.73758895e-004 0.
      -2.00999730e-005 -6.06481393e-004 -8.76656759e-006
      -1.02817139e-005 -1.69767372e-004 -1.34714658e-003
      -7.67954916e-004 7.18600582e-004 6.91865134e-005 2.93351459e-005
      -4.78578906e-004 8.82089953e-004 9.26671084e-004 -3.14918743e-003
      0. 0. 2.38684472e-003 2.02206732e-003 -1.59833391e-004
      -5.00182032e-005 1.60790049e-004 1.42744440e-003 5.72587550e-003
      0. -4.77202193e-005 -1.66727350e-005 0. 0. 0. -1.59468007e-004 0.
      -5.00182032e-005 0. 0. 0. 1.86140402e-004 0. -1.84545381e-004
      -1.20130891e-003 -1.24788930e-004 -5.46319643e-003 8.26078234e-004
      0. 3.61940736e-004 -7.66815152e-004 -3.88834771e-004
      -1.39358352e-004 -5.50772995e-004 -4.95068671e-004
      -1.28980508e-004 -1.23421138e-003 -1.86570091e-004 9.14044562e-004
      -6.20949722e-004 -1.71875392e-004 -3.03422741e-004 7.97462184e-004
      -5.51824574e-004 0. 0. -8.76656759e-006 -3.10474861e-005
      -1.66727350e-005 -6.43929525e-005 4.18787604e-005 -7.31549400e-004
      1.23898697e-003 8.60113534e-004 -4.46649356e-004 -6.79533696e-004
      -3.02527216e-004 3.98752687e-004 7.54402019e-004 1.25414459e-004
      -6.86201092e-005 -1.74605544e-003 -7.46494299e-003 9.14141012e-004
      -1.14702525e-004 1.07519596e-003 4.37750045e-004 -9.55930969e-004
      0. 1.81612762e-004 -1.21762219e-004 -7.42672361e-004
      5.80960477e-004 1.31197844e-003 2.51772028e-004 -1.75331352e-005
      7.84755743e-004 5.09367019e-005 3.70286172e-004 -1.48772355e-003
      7.78024900e-004 0. -1.29737120e-004 -4.44650243e-004
      -7.08237523e-004 3.65181733e-003 8.08797311e-004 -4.45639482e-004
      0. -4.87603684e-004 -2.13762483e-004 1.26072837e-005
      2.16666260e-003 7.59907416e-004 -3.67727080e-005 -7.87526893e-004
      -5.20702626e-004 -3.30344134e-004 -1.08012697e-003
      -4.63090953e-004 -5.07345190e-004 -5.78131177e-004
      -6.99970769e-005 6.45080218e-005 -1.96952518e-004 1.64500540e-004
      2.76441104e-004 7.41882977e-005 9.78305703e-004 1.86063861e-003
      2.15816195e-004 -3.15014855e-004 2.09091953e-003 1.62341355e-004
      1.19431037e-003 -6.47287001e-004 2.36964304e-004 1.43219403e-003
      -8.76656759e-006 -1.31059322e-004 -3.59156664e-004
      -9.63021885e-004 5.37947461e-004 -8.25778232e-004 2.24479730e-003
      -2.22939719e-003 -4.98851587e-004 0. -7.08887819e-005
      -4.98184643e-004 -9.85172810e-004 1.15179596e-003 -2.48244411e-004
      -8.44468363e-004 -2.71997735e-004 -6.46778033e-004
      -4.88811347e-004 1.81991389e-004 -3.05376685e-004 2.64371647e-005
      0. 7.44213583e-004 7.13624977e-005 1.87754020e-004
      -3.05536931e-004 5.36962645e-004 5.08648227e-004 7.76770874e-004
      4.46786435e-004 -3.33454700e-005 -2.94508500e-004 4.60954529e-004
      1.06228597e-003 -1.61979333e-004 -1.37941726e-003 -1.26892250e-004
      -4.32596571e-004 -8.47785152e-004 -4.82645322e-004 1.25176355e-003
      -6.27601927e-004 -3.98434204e-004 -1.94567692e-004
      -1.23214873e-003 -1.59570074e-004 8.09126301e-004 -6.16598700e-005
      1.08711468e-003 -1.05637161e-003 9.29874543e-004 2.58520083e-003
      -1.39024272e-003 2.05984950e-004 6.37904042e-004 2.09897524e-004
      9.64662584e-004 1.48479885e-003 3.70707305e-004 2.90023105e-004
      -4.83780663e-004 -4.63665836e-003 -3.86863348e-006 3.74761257e-005
      -6.48099929e-004 -2.55492725e-003 3.01983382e-004 0.
      -5.50293189e-004 -2.08491576e-004 1.24014958e-004 -9.95849958e-004
      3.18303355e-004 9.34440293e-004 2.98058410e-004 6.86468149e-004
      -4.31489956e-004 5.35271305e-004 9.56477015e-004 -8.87593604e-004
      0. 4.77796653e-004 -2.30830512e-004 -1.48293818e-003
      5.81665023e-004 -2.13037524e-003 2.13656647e-004 2.55913561e-004
      -1.53941401e-005 2.05984950e-004 -3.74700321e-004 5.99251362e-004
      7.43463286e-004 4.93882049e-004 -1.51042550e-004 0.
      -1.50518477e-004 9.21117200e-004 -9.10380157e-004 2.66840588e-003
      -5.97776452e-005 3.25139437e-004 -7.59088842e-004 -2.54426413e-004
      0. -3.07879294e-004 -6.53947063e-005 -3.80929734e-004
      1.73523161e-003 -9.82073179e-005 1.42277684e-003 2.81822955e-004
      3.79758916e-004 5.81467117e-004 7.15863134e-004 -1.20176213e-004
      6.36166224e-005 -1.24246901e-004 -2.17711320e-003 1.20073522e-003
      2.76534166e-003 -7.58487207e-004 -2.17047147e-003 -5.51764912e-004
      3.60852992e-003 6.21308573e-004 -3.81096121e-004 -1.70992722e-003
      1.53148212e-005 1.60181557e-003 -1.79836759e-004 -1.43191672e-003
      1.41798402e-004 -2.21425915e-004 7.60613533e-004 -1.74166099e-003
      -2.87272292e-003 -1.19040103e-003 -2.29094749e-005 3.70707305e-004
      0. 5.97955543e-004 2.37740367e-003 1.94216307e-004 5.99457744e-005
      7.49362574e-004 0. -1.46958497e-004 0. 6.71483940e-005
      5.69986878e-004 5.59590153e-005 6.90861605e-004 -3.19140148e-004
      0. 0. 3.29043396e-004 -1.81188784e-003 -1.32654794e-003
      3.20823194e-004 -4.10409935e-004 1.89662125e-004 -3.74640862e-004
      1.09265020e-004 -1.07632855e-004 2.79612996e-005 -3.88341228e-004
      2.25627236e-003 -2.58762110e-003 6.26433248e-005 -3.79301666e-004
      1.03495677e-006 -9.96105024e-004 1.34540279e-003 -4.90475853e-004
      -1.37193152e-003 0. 5.59993379e-004 1.92890162e-004
      -2.39192348e-004 3.45021544e-004 2.17234599e-004 6.89511362e-004
      7.03095866e-004 7.44488032e-004 0. 3.81427380e-004 1.40318341e-004
      4.72699874e-004 -3.10474861e-005 3.89314402e-004 -3.41132429e-004
      -4.52210361e-006 -3.64200037e-004 -2.22246465e-003 4.82676434e-004
      -3.41896884e-005 -3.44747241e-005 2.99017789e-004 -8.91499396e-004
      1.26324361e-004 -1.20240813e-002 -9.85703198e-004 2.32680162e-004
      2.42189868e-004 -4.38800897e-004 1.25035748e-003 1.28011801e-003
      -2.49323831e-003 -1.40113197e-003 2.61994265e-003 1.01213474e-004
      5.36098843e-004 2.74650869e-004 7.95450411e-004 4.41987911e-004
      2.09138307e-005 2.02579264e-004 9.07490787e-004 9.24290856e-004
      2.75834202e-004 -2.18978123e-004 2.06977222e-003 -7.77748792e-005
      4.27620136e-004 4.15547838e-004 2.50728452e-003 2.36112787e-003
      2.40593008e-003 -4.17384348e-004 8.34651990e-004 1.54078414e-003
      1.95631245e-003 2.02786969e-003 2.10672384e-003 1.93683532e-004
      5.33219718e-005 -8.07417091e-004 -1.49986614e-003 -3.57271383e-005
      -6.14965975e-004 -8.24540097e-004 -3.08026792e-004
      -1.58657448e-003 -3.10474861e-005 4.62657918e-004 -3.22998414e-004
      -3.73313000e-004 -4.09793924e-004 -1.45979191e-003
      -7.14858470e-005 -1.21938065e-005 -2.46678464e-005 4.36477858e-005
      -3.88585293e-004 -1.23346876e-003 -1.28635613e-003 0.
      3.71690578e-004 -2.64714868e-003 4.03003301e-003 -3.04239988e-003
      -6.24067499e-004 2.52486818e-004 -4.21120385e-005 4.27060062e-004
      -8.73393496e-004 1.18380856e-004 9.84931597e-004 2.06383714e-003
      -8.76656759e-006 -1.05336258e-004 6.61753642e-004 4.38675015e-005
      1.45631100e-004 0. 2.88781215e-004 3.92279995e-004 2.70151242e-004
      2.97952065e-004 -4.19254939e-005 -1.92509760e-005 -5.76566497e-004
      -2.54393017e-005 -4.02459002e-004 -5.02235431e-004
      -1.35511428e-003 -2.41463858e-004 -9.32800904e-005 9.05160323e-006
      7.89401529e-004 -5.22516144e-004 -9.77589400e-004 -4.89797385e-004
      1.81173265e-004 -3.65957443e-004 -6.36555560e-005 1.40450324e-003
      1.04796910e-003 -1.63577904e-003 1.53772056e-003 4.13399219e-004
      1.06541580e-003 0. -5.78942127e-004 7.08798834e-005
      3.17636848e-004 2.15633889e-003 2.10123733e-004 -5.52622660e-004
      6.34563330e-005 -6.90051122e-004 -3.26948139e-005 -6.14009507e-004
      -2.25168327e-003 -1.25818726e-004 3.49954498e-004 -1.27195099e-005
      1.76109352e-005 -1.22296053e-003 -2.04321044e-003 -1.09490042e-003
      3.99355020e-004 3.26467765e-004 -1.43627624e-003 -3.43984691e-004
      -3.97566892e-003 -5.07956196e-004 4.25992708e-004 4.20003373e-004
      5.43763919e-004 3.90009285e-004 2.62559485e-003 -8.03467701e-004
      2.28924066e-004 2.45182589e-003 -5.88881376e-004 -2.59559631e-004
      -4.20484837e-004 5.31557773e-004 -1.56897120e-004 8.86136986e-005
      2.68182688e-004 1.42280431e-003 8.72181728e-004 1.47291622e-003
      2.92271667e-004 -1.33950834e-003 4.78290371e-004 -9.54722345e-004
      2.93222925e-004 -5.76704449e-004 -1.53186801e-003 0. 0.
      1.04217581e-003 1.68884604e-003 -1.04079396e-003 -3.57210156e-005
      -8.59620515e-004 -6.76870695e-006 -1.73179942e-004 0.
      -2.11948372e-005 -1.66727350e-005 -2.05801378e-004
      -2.32755818e-004 2.50380166e-004 -1.47486455e-004 -2.00999730e-005
      -1.35675000e-004 -1.66727350e-005 -4.36271839e-005
      -3.69536516e-004 1.40026183e-004 3.58636054e-004 -4.60198906e-004
      1.61700067e-003 3.43384454e-003 -1.72073569e-003 8.40355817e-004
      1.37785799e-004 9.10966075e-004 1.22970901e-004 -1.60335971e-003
      1.52973318e-003 -2.41689617e-004 5.70536416e-004 -4.32490109e-004
      -3.83830606e-003 -2.38414551e-003 3.24629084e-003 -1.65946374e-004
      4.21701370e-005 1.46648055e-003 1.33972918e-003 1.86771489e-004
      -7.32527231e-004 -2.29616839e-004 0. -2.35272109e-005
      -3.42723820e-006 -1.17516676e-004 -1.27412647e-003 9.67538857e-004
      2.20616610e-004 1.70126528e-004 8.53484496e-004 -1.55893364e-003
      1.05702586e-003 3.29875329e-004 4.53490356e-004 0.
      -5.90242795e-004 -1.25550071e-003 -2.49433843e-003
      -8.74477904e-004 -1.24766922e-003 9.23425250e-004 -1.10256544e-003
      4.48334916e-003 0. -2.30779944e-004 2.59236782e-004
      -7.40199248e-005 -1.12291593e-004 -4.54008929e-004 3.42899206e-004
      -4.11466433e-004 -5.94579265e-004 3.46625457e-004 -6.65151747e-005
      7.33988491e-005 -7.70035331e-005 0. -2.08629845e-005
      2.34066555e-003 1.83536694e-003 -2.30371766e-003 1.14908034e-003
      -2.04093652e-004 2.24900228e-004 -1.11609267e-003 -1.42153562e-003
      -7.90337741e-004 1.70204893e-003 6.23406610e-004 2.83607049e-004
      1.61490112e-003 -2.74139852e-003 1.11358834e-003 -1.15208956e-003
      3.43514606e-004 -4.01932593e-005 -8.54033337e-004 1.75414258e-004
      3.11011245e-004 0. 4.29315725e-004 -1.74077228e-004
      -8.76656759e-006 -1.91174317e-004 -5.60789253e-004 1.06318027e-003
      5.13619219e-004 2.56913085e-003 4.63531323e-005 -3.29103088e-003
      -6.13638433e-004 -3.52096919e-004 3.32744885e-003 0.
      -5.73979924e-004 2.91000516e-003 3.57290288e-003 5.23501076e-004
      6.36770041e-004 -7.34631845e-004 -1.72471406e-003 -3.47419712e-003
      0. 3.23913293e-004 -4.32412926e-005 -1.99385220e-004
      1.71714946e-005 3.02860484e-004 -1.33530563e-003 2.90492990e-005
      7.96119391e-004 -7.45746656e-004 -2.57786269e-006 -6.26725494e-004
      2.57751992e-004 0. -6.09547133e-004 8.66202172e-005
      1.26388040e-003 1.76049082e-003 1.01913909e-004 -1.17872565e-004
      3.02413275e-004 -7.62319833e-004 6.65807340e-004 -2.12587579e-003
      -1.54441397e-003 6.76059455e-004 1.31110239e-004 8.37503874e-004
      -1.75331352e-005 -3.00815853e-004 -1.61920791e-003 1.31636916e-004
      -6.90623419e-004 1.24979051e-004 3.18955106e-004 -2.04198164e-004
      6.68798748e-005 5.42157613e-005 -3.04082414e-006 2.41225507e-006
      2.43678325e-004 6.10352377e-004 -1.49278576e-003 1.14600384e-003
      6.88031432e-004 2.05984950e-004 6.40249520e-004 1.06620297e-004
      5.61725639e-004 6.06927613e-004 7.90613267e-005 -1.90617560e-004
      -2.75529665e-003 -8.62654473e-004 1.36807153e-003 -6.97647280e-004
      6.31258939e-004 9.82330297e-004 5.31204278e-004 -3.50504357e-004
      -8.37646894e-006 -2.73564161e-004 -2.03771912e-003 1.21243368e-003
      -8.53912206e-005 7.28726736e-004 -2.55352206e-004 -9.00578860e-004
      2.83726549e-004 6.45471795e-004 -2.01312150e-003 -1.23512335e-004
      3.27710150e-004 -1.96028952e-004 -1.66727350e-005 -3.19701707e-004
      7.65775854e-004 6.93791604e-004 -2.41566799e-004 4.82578325e-004
      1.23669422e-004 -4.67761507e-004 -1.62909913e-004 -6.80296915e-004
      -1.35292648e-004 -4.68731829e-004 -6.53511670e-004
      -4.43625206e-004 -9.45060747e-004 -3.13640165e-004
      -1.39737874e-003 8.13323073e-004 -4.69984894e-004 4.56487382e-004
      1.23193453e-003 1.08084839e-003 -4.33131587e-004 -5.50429802e-004
      -8.84308480e-004 3.88974178e-004 2.17903289e-003 3.72416427e-004
      -3.87824315e-004 1.74517534e-003 1.77462789e-004 2.25176977e-004
      3.78241413e-004 -6.63298706e-005 2.04241578e-003 7.90613267e-005
      2.47165532e-004 -3.18785477e-003 5.36754914e-003 -4.91163519e-004
      -1.80173622e-004 -3.97062744e-004 -6.42263680e-004
      -1.79652218e-003 0. -5.30076155e-004 -2.65098730e-004
      -6.73628354e-004 -2.38613109e-004 6.17817801e-004 -3.65646207e-004
      6.41175953e-004 1.77447262e-004 -3.19852750e-003 -9.76444688e-004
      -2.86497670e-005 -2.10633170e-005 2.19086040e-004 7.98254681e-004
      -2.82060122e-004 -2.66874931e-003 -1.21604861e-003 6.40150916e-004
      1.39365278e-004 3.71904229e-004 2.64068476e-005 1.43075376e-004
      3.49901180e-004 -5.33831131e-004 -1.87114798e-004 -5.07260382e-004
      5.01818540e-005 -1.89730461e-004 -8.29318073e-004 1.52994727e-003
      3.48413200e-003 5.11098653e-004 4.78083268e-004 -1.65678211e-004
      1.50993816e-004 1.77292259e-005 4.11753106e-004 -3.46075278e-004
      -1.66161597e-004 5.00512251e-004 -1.02271407e-003 4.04195853e-005
      2.53301463e-003 1.20726530e-003 -1.08743308e-003 5.79001615e-004
      -9.79752047e-004 -4.01050725e-004 -1.18863373e-003 1.48539242e-004
      -1.56442216e-003 9.60171630e-004 1.23662944e-003 1.32048421e-003
      -7.49491912e-004 -1.03235128e-003 8.40739696e-004 -3.35154036e-004
      0. 2.63846247e-004 2.26876400e-005 1.54284388e-003
      -1.25701277e-004 -9.06147528e-004 5.52618585e-004 -2.30830512e-004
      2.01984876e-004 7.12564390e-004 -8.83597066e-004 -5.91538730e-004
      2.57617939e-004 0. 4.24353289e-004 4.06068953e-004 4.09194588e-004
      1.28341315e-004 -2.25585187e-003 -2.26319139e-003 4.41363809e-004
      3.86941945e-004 -1.08244747e-003 -8.25803800e-005 -1.53012530e-004
      1.21548120e-003 2.80165477e-005 5.05027710e-004 -2.09667996e-004
      1.25512830e-003 3.39574399e-005 1.12427013e-004 -1.66203442e-003
      8.38544918e-004 1.11836824e-003 -7.98535300e-004 5.56313491e-004
      -5.22934308e-004 0. -3.11518612e-004 6.70836773e-004
      -4.71469866e-005 -1.44534966e-003 8.78051738e-004 -1.63331861e-005
      1.59190400e-004 -7.21643028e-006 -4.61281561e-005 3.29315546e-004
      -8.22303526e-004 0. -5.77330793e-005 -1.30473389e-004
      -1.65834441e-003 -2.31631435e-004 1.98892194e-005 -1.24020490e-003
      5.65182963e-005 -4.01690695e-003 0. -1.43241787e-005
      -2.84658017e-004 -6.50171132e-004 -2.51000893e-004 1.17964650e-004
      6.69956440e-004 2.15437234e-004 -3.47429159e-005 -3.62285064e-004
      -7.31251421e-005 -4.25670471e-004 -1.08403154e-003 0.
      1.61481579e-003 7.14551366e-004 1.98163674e-004 -7.49641680e-004
      -1.21990254e-003 7.54382345e-005 -6.25900517e-004 -1.06920407e-003
      5.93417464e-003 2.71760300e-003 2.90090920e-005 -5.13783772e-004
      -1.66727350e-005 -1.10584471e-004 4.89451457e-004 -2.87440984e-004
      9.17260186e-004 -3.32431264e-005 -5.01461909e-006 -3.18832812e-004
      6.35211996e-004 -1.67817125e-004 -1.21938065e-005 -1.46244798e-004
      -1.09815192e-004 0. -6.20949722e-005 1.34197500e-004
      9.49471083e-004 -1.30165671e-003 -3.94226023e-004 1.43075376e-004
      -2.79335974e-004 9.91448527e-004 -5.63386595e-004 -2.99809990e-003
      0. 4.14815178e-004 5.91523363e-004 -4.51925123e-004
      9.67513697e-005 -1.70096740e-004 6.91225694e-004 7.77768949e-003
      1.65340619e-003 2.05984950e-004 5.24302945e-004 2.72120989e-004
      1.99509261e-004 -2.35569128e-003 -3.71264498e-004 3.29650269e-004
      -3.46366345e-004 -1.74389232e-003 -1.00970392e-004
      -7.18785683e-004 -1.50680906e-004 1.06280157e-003 4.63531323e-005
      4.42117860e-004 1.10933441e-003 -2.66944757e-003 -4.22305136e-004
      3.20149848e-005 -1.35292648e-004 -7.91699043e-004 -3.81597900e-004
      -2.91131460e-003 -1.39630435e-003 -3.90692614e-004 1.41307921e-003
      -1.86937745e-004 8.42415320e-004 -1.10913906e-003 -1.59820760e-004
      3.11359690e-005 -1.02294915e-004 -3.11535463e-004 1.15113170e-003
      -9.54321353e-004 -1.08802975e-004 -1.66727350e-005 5.05002739e-004
      -1.26604966e-004 -3.10474861e-005 -4.37807001e-004 7.04136561e-004
      3.35898995e-003 6.19318685e-004 8.67581286e-004 8.67762174e-006
      -1.19395053e-003 2.01195973e-004 5.45362069e-004 -1.76679736e-004
      8.30060162e-004 -1.05317624e-004 -7.44896010e-004 -9.43200954e-004
      -1.54315858e-004 -3.39703372e-004 -3.57446237e-003 5.90777583e-003
      3.09733837e-003 0. -1.28143278e-004 -2.10147444e-003
      7.44478719e-004 1.80510641e-003 -2.43331515e-003 0.
      -2.37522996e-004 -1.44756068e-005 -9.64504317e-004 1.98351638e-003
      -2.09486065e-003 -2.12032418e-003 0. 8.52199591e-005
      -1.66727350e-005 -5.00182032e-005 8.67762174e-006 0.
      -3.34014709e-004 -3.33454700e-005 -2.54393017e-005
      -5.00182032e-005 -1.66727350e-005 8.67762174e-006 -4.83158336e-004
      -1.10483688e-005 -3.75078875e-004 3.08069371e-004 -2.69625569e-004
      1.51910615e-004 -3.92883085e-004 -3.70630369e-005 0.
      -7.99511236e-006 -7.05805360e-005 0. 0. -3.46576213e-004 0.
      6.97015494e-005 1.50052249e-003 1.10414659e-003 8.68225179e-004
      -2.43146147e-004 0. 9.85124498e-004 8.91806703e-005
      8.44207316e-005 1.01885549e-003 0. 8.67762174e-006 2.20438675e-003
      -6.63268194e-003 -3.90472618e-004 -6.30724098e-005
      -4.33796056e-004 -2.45328876e-003 -8.75790720e-004 0.
      -3.67727080e-005 -8.76656759e-006 -2.93108489e-004
      -3.19455939e-005 4.85056371e-004 0. 0. -9.53661875e-005
      -1.66727350e-005 -3.33454700e-005 -1.56890237e-004
      -1.45047350e-004 0. -3.42723820e-006 3.77631921e-004
      -2.37005050e-004 -5.01785020e-004 1.07062969e-003 1.32689047e-005
      0. 0. 6.42316998e-004 7.81153271e-004 9.63600876e-004
      1.80440873e-003 0. -6.20949722e-005 -1.21938065e-005
      -5.77330793e-005 -2.58254004e-004 -1.77564449e-004
      -1.61823045e-004 -4.89665144e-005 0. -3.33454700e-005 0. 0.
      -1.66727350e-005 0. -2.68299947e-004 3.31230665e-004
      2.02116091e-003 -3.79574776e-004 -3.32872791e-004 0.
      -1.01909020e-004 3.04997608e-004 -1.67166392e-004 9.88378888e-004
      0. 1.77860877e-003 5.31699974e-004 7.25511811e-004
      -1.14411159e-004 -2.35847707e-004 1.35720940e-003 -2.97831884e-003
      2.24690186e-003 0. -2.00999730e-005 -5.66375791e-004
      3.04410676e-003 -1.54758175e-003 5.11517283e-004 -2.78392137e-004
      -5.74344012e-004 -8.96144717e-004 -1.49647080e-004 3.43008112e-004
      -1.08731538e-003 6.85414241e-004 0. -7.00900855e-005
      -1.18581760e-004 -1.37409690e-004 -7.49249884e-004
      -1.53360088e-005 2.05984950e-004 4.69977153e-004 1.97659523e-004
      -1.32527051e-003 8.63082183e-004 -8.97082384e-004 -3.44747241e-005
      -1.69230683e-004 -6.65360247e-004 0. -3.79128032e-004
      -1.38354721e-004 5.32212471e-005 0. 0. 0. -2.54199986e-004 0. 0.
      8.36999607e-005 0. -2.07553618e-004 -3.03011911e-004
      5.03356161e-004 5.99314400e-004 -2.57971005e-005 2.09562888e-004
      -2.75331608e-004 4.81626950e-004 -2.28935431e-004 1.93919800e-003
      0. -3.24544089e-004 7.70760234e-004 -3.61366343e-004
      -4.08660009e-004 2.56200845e-004 -2.05164333e-003 1.41655840e-003
      -1.15436118e-003 0. 0. -6.20949722e-005 -5.53093327e-004
      -2.09344202e-003 -2.74138674e-005 4.63531323e-005 0. 0. 0.
      -1.76621848e-004 -3.76489741e-004 2.73324607e-004 0. 0.
      6.22259919e-004 -2.10007362e-004 -5.60917717e-004 7.20491458e-004
      4.18758485e-004 9.05160323e-006 -1.01948960e-003 -5.68516902e-004
      -6.24585024e-004 1.97552072e-004 1.32099376e-003 -1.84436678e-004
      1.03148690e-004 -4.35557595e-004 1.00693396e-004 3.05644178e-004
      -2.92643817e-004 1.24598111e-004 0. 4.90329803e-005
      -3.42723820e-006 0. 0. -2.21237526e-004 -1.66727350e-005
      -1.43247962e-004 9.29164642e-004 1.50624628e-003 1.75845763e-003
      -2.09771388e-004 0. 8.64819449e-005 -6.37607067e-004
      1.35159818e-004 -1.33126229e-003 1.94530541e-004 -1.20463106e-003
      2.30740639e-003 -2.24427390e-003 -2.61101795e-005 -1.21451996e-003
      1.21292588e-003 -9.25247092e-004 1.34875881e-003 0.
      4.97002795e-004 -1.45383528e-003 1.36314731e-004 -1.66727350e-005
      -1.02792917e-004 8.91806703e-005 2.99017789e-004 5.97815844e-004
      -1.65340134e-005 1.23322359e-004 4.12916241e-004 5.67929645e-004
      -1.00886849e-004 3.79758916e-004 -2.79325905e-004 -2.09915306e-004
      4.44064935e-004 6.06196154e-005 2.31359052e-004 3.54925578e-004
      9.71645350e-005 8.11180798e-004 3.87315667e-004 -1.39198708e-003
      4.52125998e-004 -3.45822773e-004 -4.79148221e-005 2.06892233e-004
      -1.85701399e-004 -1.81065162e-003 -1.04408718e-004
      -3.54942225e-004 -2.85487360e-004 0. -4.45739388e-005
      -2.54393017e-005 0. 9.42930637e-005 -7.62113086e-006
      -1.90007835e-004 1.11927954e-003 3.61743267e-004 2.61747744e-003
      4.95542365e-004 -1.15181021e-004 4.88755002e-004 1.17075331e-006
      1.11113256e-003 1.36651716e-003 -2.08811311e-004 -1.09709799e-003
      1.64961198e-003 -2.42834655e-003 5.14131898e-005 -3.99285491e-004
      5.92054042e-004 1.64325384e-003 -1.07435335e-003 1.96224864e-004
      -2.12339684e-003 1.37943804e-004 -2.82686693e-003 -1.41406280e-003
      -3.27661139e-004 -2.96205835e-004 1.32613684e-004 -1.34811352e-003
      -1.03590218e-003 -3.24745139e-004 4.14544670e-003 1.66715041e-003
      -1.46580016e-004 2.07858000e-004 -2.04335694e-004 1.54223270e-003
      6.38847996e-004 -1.92405912e-003 -1.50713290e-003 8.16107931e-005
      -1.05245714e-003 -1.75559922e-004 1.14136015e-003 -5.15872205e-004
      -3.65145446e-004 -3.37104953e-004 4.96551802e-004 0. 0.
      -1.86284902e-004 -8.22122616e-004 -6.05921268e-005 0.
      -3.42723820e-006 4.49730025e-004 5.81894012e-004 -2.63280352e-004
      6.95987255e-004 2.35336876e-004 5.81610424e-004 -3.38617410e-003
      3.02083115e-003 1.22236344e-003 -1.02361781e-003 7.67170241e-006
      2.71290373e-005 1.80656629e-004 4.02048434e-004 -8.86087073e-004
      2.72305420e-004 -3.79403536e-005 1.32776622e-004 -3.48437286e-004
      3.56117766e-006 -2.00999730e-005 -7.68678728e-004 -1.89517089e-003
      -1.31731306e-003 4.91391460e-004 4.37326555e-004 -1.56960974e-004
      -2.42958849e-004 -2.30830512e-004 -1.28933531e-003
      -1.47420226e-003 3.50479531e-004 2.52757396e-004 2.60711444e-004
      1.69791951e-004 -2.78550724e-004 -1.85701399e-004 0.
      9.35819698e-004 1.31461269e-003 5.11258142e-003 -1.26200879e-003
      -1.53706782e-003 -1.93921628e-003 5.08681114e-004 8.36628489e-004
      1.45937476e-004 1.35993795e-003 9.08908725e-004 -6.41367689e-004
      1.52126988e-004 -2.04126962e-004 1.67166698e-003 1.40602188e-003
      6.31788571e-004 2.90088879e-004 5.51394944e-004 7.35041918e-004
      -2.63755413e-004 -1.01047495e-004 1.42361114e-005 3.49738402e-004
      3.58968566e-004 -3.40327329e-004 -5.57076244e-004 -2.80985609e-003
      -1.68341643e-003 -5.22040064e-004 -9.09615119e-005 0.
      -6.20949722e-005 -8.51780991e-004 -3.42723820e-006
      -2.66767078e-004 0. 8.77389466e-005 0. -3.33454700e-005
      -7.63294811e-004 8.88066934e-005 3.94846196e-004 1.12973421e-003
      -3.33454700e-005 0. 4.50277177e-004 -1.45341177e-003
      1.99296023e-003 -1.80723064e-003 8.67762174e-006 1.00872060e-003
      -1.31551200e-003 -4.96172521e-004 3.56577191e-004 4.25149966e-003
      -7.35302863e-004 0. -1.75331352e-005 4.79633527e-005
      -3.78571945e-004 -6.03581080e-004 -8.67909112e-005 0. 0.
      -8.53704638e-004 -1.87499775e-003 2.53090635e-004 -9.05489025e-004
      -1.40862670e-004 -3.42723820e-006 1.18739530e-003 1.29754690e-003
      -1.23011068e-006 0. 1.53056480e-005 -5.64900518e-004
      7.30617729e-004 -5.93060977e-005 0. -7.86660414e-004
      7.10226537e-004 -8.76656759e-006 2.09791233e-005 4.99103684e-004
      2.85110495e-004 -6.64125255e-004 5.67456707e-004 2.08352413e-003
      -2.30834485e-005 -1.84627370e-005 -1.36932835e-003 6.85675623e-005
      -8.23186128e-004 1.31467776e-003 5.14551539e-005 3.83022161e-005
      2.05071410e-004 2.22383518e-004 -3.33047850e-004 9.14525241e-004
      -9.59579193e-004 2.23537296e-004 2.99784355e-004 4.92048857e-004
      -2.30333698e-003 6.64186722e-004 -5.57102940e-005 3.74592171e-004
      -6.42626372e-004 -2.93706922e-004 -1.19022070e-003 8.77114537e-004
      -7.04269623e-004 8.40137713e-004 1.05545286e-003 3.85084350e-005
      -2.30830512e-004 -1.60025054e-004 1.18134997e-003 1.93245364e-006
      -4.67486912e-004 -1.59331626e-004 -2.77475949e-004
      -1.07216802e-004 -1.35235768e-003 1.13939284e-004 -5.39667672e-005
      6.48464766e-006 -4.30612417e-004 -1.44950245e-004 2.62427120e-003
      -1.65395881e-003 -1.13068649e-003 1.09035733e-004 8.75575119e-004
      2.09670467e-003 -1.11880503e-003 3.77764722e-004 4.71971347e-004
      3.08707065e-004 -4.80589719e-004 -1.84607739e-003 4.49902524e-004
      -1.30294415e-004 5.93861856e-004 -5.14146232e-004 -1.02839246e-003
      -6.18742488e-004 0. 0. -8.06829703e-005 0. 5.66953910e-004
      2.19086040e-004 7.90613267e-005 -3.42723820e-006 1.04134623e-003
      -7.82711577e-005 -1.19693286e-003 1.82450545e-004 8.75177793e-004
      9.34879761e-004 -8.76656759e-006 7.08465348e-004 7.61005911e-004
      4.47920553e-004 3.12319753e-004 -3.05876951e-004 9.96879025e-005
      -6.47987763e-005 -2.30240068e-004 5.27776312e-004 -3.42145824e-004
      -5.51077072e-004 -3.08739516e-004 2.42159338e-004 -2.43385206e-004
      1.69994019e-003 8.72122298e-004 -3.74365645e-003 2.98892759e-004
      4.08277177e-004 -1.39135856e-003 -1.20167353e-003 2.74748798e-003
      -1.01965538e-003 6.86421408e-004 5.90135925e-004 4.65406373e-007
      -1.88855076e-004 1.03906763e-003 3.31269403e-004 -1.07790343e-003
      -8.92451280e-005 1.72631105e-003 -1.98805681e-003 8.25051684e-004
      -9.33309493e-004 -8.82114982e-004 -7.22043333e-005 1.83227967e-004
      0. 5.85797301e-004 -1.61255372e-003 2.69307231e-004
      -9.32667172e-004 5.79119776e-004 -3.45782581e-004 -3.71579663e-004
      1.58516620e-003 0. 1.76217422e-004 0. -1.66727350e-005 0. 0.
      3.30966031e-005 0. 3.82741040e-004 -3.22434644e-004 0.
      -2.33757819e-005 3.35607096e-004 -1.26510335e-003 -1.26110460e-003
      1.72470696e-003 0. -8.96066776e-004 7.71188468e-004
      -1.31288194e-003 2.77075265e-003 -4.25015722e-004 -1.50478751e-004
      1.62341355e-004 -5.66632836e-004 5.50306577e-004 7.12953974e-004
      9.50028538e-004 0. 0. 0. -4.92849096e-004 -1.92224537e-003
      1.27604522e-003 -2.20621214e-003 0. 0. -2.28834484e-004
      1.26558437e-003 2.07794612e-004 2.22818169e-004 -1.55237431e-004
      -5.82925801e-004 8.31613579e-005 2.21301772e-004 -5.16977161e-004
      6.78890428e-005 -7.21602875e-004 -2.12172643e-004 -8.19129171e-004
      2.61274574e-004 5.55026229e-004 3.79069708e-004 4.73790948e-004
      5.85738919e-004 -1.11075456e-003 -2.92643817e-004 8.46957904e-004
      -8.84523033e-005 -1.48236926e-004 -9.83617152e-004 0.
      3.75865638e-005 2.60940957e-004 1.03550334e-003 -1.65365447e-004
      -8.76656759e-006 -5.83533489e-004 1.77736953e-003 6.75970005e-005
      1.07281597e-003 4.18368203e-004 -1.00261054e-003 -4.17212461e-004
      -1.26105198e-003 -3.75825126e-004 -5.84735302e-004 3.09033756e-004
      -2.17173714e-003 3.39857448e-004 -3.69322044e-003 2.93798163e-004
      3.07673967e-004 -3.85459571e-004 -1.48928072e-003 6.15465280e-004
      2.17710804e-005 -7.23108184e-004 5.42148133e-004 -1.94388311e-004
      -4.54096182e-004 1.13405392e-003 -6.40290891e-005 5.49270131e-004
      4.41214244e-004 1.47003401e-003 -1.89495238e-003 1.62099395e-003
      5.09810925e-004 -2.19269787e-004 4.89954895e-004 -2.03762017e-003
      -1.68154004e-003 6.51045761e-004 7.05748156e-004 3.14794015e-003
      -6.27551461e-004 -1.24052214e-003 -1.73926164e-004 1.30911867e-004
      -9.12110845e-004 1.14503957e-003 4.45697457e-003 -3.02651990e-003
      4.57255897e-004 -2.82060122e-004 2.62217014e-004 2.06256427e-005
      3.92472757e-005 4.41617973e-004 2.58988235e-004 -5.29822464e-005
      -6.19437720e-004 -3.72458569e-004 3.72615526e-004 -1.17563766e-004
      -5.17237291e-004 -1.01360267e-004 -3.77332588e-004 0.
      -1.50132168e-004 -2.05109347e-004 -3.67727080e-005
      -6.66909400e-005 -8.76656759e-006 -1.33381167e-004
      -2.77866813e-004 -7.27989362e-004 -2.70378019e-004
      -8.44929236e-005 0. -3.10474861e-005 3.36863654e-004
      -5.56852727e-004 6.23499742e-004 4.00400674e-003 -2.54160375e-004
      -1.77388501e-004 -8.76656759e-006 1.05884403e-003 -2.97747785e-003
      -1.20627834e-003 7.89547557e-005 -1.66575570e-004 2.31858969e-004
      3.73452349e-005 4.15471295e-004 3.85389058e-003 8.98216022e-005
      -1.30670937e-003 1.83463388e-004 1.39028431e-004 -2.13667867e-003
      7.22038152e-004 -9.12486226e-004 8.10380559e-004 7.76561210e-004
      2.24585194e-004 -1.21938065e-005 6.43520732e-004 7.19362521e-004
      3.73083953e-004 -2.41352158e-004 9.25737331e-005 -4.55326983e-004
      2.73968442e-004 -6.03336492e-004 1.88440492e-004 7.85838871e-004
      8.67762174e-006 2.19086040e-004 0. 2.05984950e-004 5.35207859e-004
      -1.09486541e-006 -5.87847717e-005 -2.69625569e-004 0.
      1.04780379e-003 -3.88721033e-004 2.84963474e-003 -2.19836691e-003
      3.51962080e-004 -2.31459213e-004 -7.15889095e-004 6.29667193e-005
      -1.27347463e-004 -4.39136568e-003 -4.34725638e-003
      -4.58158938e-005 -1.05628809e-004 2.70399149e-004 2.82115536e-004
      3.73279024e-003 -1.44444208e-003 8.72414792e-004 -6.85115170e-004
      -2.77329003e-003 2.08941012e-004 1.44252938e-003 -2.92354100e-003
      -8.13439081e-004 -1.21475139e-004 -7.87677054e-005 2.28493722e-004
      1.11339567e-003 -3.05848051e-004 9.91154695e-004 -3.42723820e-006
      4.25159291e-004 -4.05467523e-004 5.85925183e-004 -2.21576367e-004
      -4.11759902e-005 7.52054562e-004 -1.50854373e-003 2.63753958e-004
      4.19356729e-005 2.03708792e-003 2.25624954e-003 3.38093471e-003
      -4.14539885e-004 -4.62045980e-004 -2.60573957e-004 6.19970728e-004
      -2.33044077e-004 2.32816485e-004 2.16666306e-003 -2.92643817e-004
      5.01472323e-006 1.47026323e-004 1.22649853e-005 1.03187480e-003
      -3.15928366e-004 -3.42723820e-006 -8.36870822e-005
      -4.13405796e-005 2.38400826e-004 5.45232731e-004 -1.63547788e-003
      5.34259889e-004 1.63259843e-004 -8.76656759e-006 4.25806211e-004
      -2.47116142e-004 -3.35345115e-003 1.62392843e-003 -8.60082742e-004
      -5.54855738e-004 -3.42122803e-004 0. -9.20870007e-005
      8.15975014e-004 2.46581365e-003 4.85960132e-004 2.39351975e-005
      -8.42604495e-005 -2.42770169e-004 -9.87084233e-004 3.34450533e-003
      1.64705503e-003 -4.42357239e-004 -1.84631281e-004 -1.28004514e-003
      -1.52565667e-003 -1.51919911e-003 -2.87966628e-004
      -3.33618809e-004 -1.68161292e-004 1.79492694e-004 8.77355167e-004
      6.46403292e-004 4.38917457e-004 1.06093183e-003 -2.00713472e-003
      -5.20256581e-004 -5.20829984e-004 8.21731664e-005 7.14287104e-004
      -1.22416066e-003 7.55587709e-004 7.51430285e-004 4.21644014e-004
      9.47488530e-004 5.92969998e-004 3.96859366e-004 -3.83955124e-003
      7.42702468e-005 -1.35369439e-004 -1.22721586e-003 2.11287712e-004
      1.71646228e-004 -1.36803050e-004 1.15845632e-003 2.60753720e-003
      4.96234093e-003 0. 2.53350008e-004 0. -1.66727350e-005
      7.39522628e-004 7.47583690e-004 3.03167268e-004 -8.60970526e-004
      4.60292686e-005 -2.09603731e-005 -1.66727350e-005 2.77658895e-004
      -2.37761837e-004 0. 1.50442962e-003 -1.54976605e-003
      -5.10236388e-003 7.37495429e-005 1.43570534e-003 5.00756651e-005
      -6.48786721e-004 -3.01374169e-003 -1.00291742e-004 1.99995207e-004
      -3.70797963e-004 3.09566210e-004 -1.46285573e-004 6.57028926e-004
      0. 0. -4.77202193e-005 2.28250935e-003 -9.38025943e-004
      -4.06551670e-004 0. 4.71200328e-005 0. 0. 0. 0. -1.66727350e-005
      -1.61872548e-003 -1.52730290e-003 6.46604749e-004 3.88544169e-004
      0. -2.24277508e-004 2.53245380e-004 -8.76656759e-006
      -2.77337240e-004 2.75657716e-004 8.13678053e-005 9.61419370e-004
      5.49997785e-004 -1.89827872e-003 1.20900964e-004 -3.61841777e-003
      1.34884065e-003 -2.24407134e-003 -1.85701399e-004 -5.19187306e-004
      4.96839057e-004 1.43048121e-003 -2.15249718e-003 -5.85089147e-005
      4.60091076e-004 4.80411691e-004 3.58362246e-004 -3.21724692e-005
      5.26007207e-004 1.48332067e-004 2.77126924e-006 -6.09952898e-004
      5.59070555e-004 -3.10176954e-004 -8.79082072e-004 1.20508841e-004
      -1.14234409e-003 7.90613267e-005 4.31219523e-004 -9.49527661e-004
      -8.57591047e-004 1.29489938e-003 9.79526900e-004 -8.55805119e-004
      1.16454496e-004 8.20942316e-003 -8.03402450e-004 -1.50541109e-005
      -4.12432186e-004 -4.06670896e-003 -2.10995815e-004
      -7.88159377e-006 -1.81456940e-004 4.92198567e-004 5.76666847e-004
      -4.67829494e-004 -1.63220894e-003 -3.74683528e-004
      -8.54729384e-004 2.23107543e-003 2.23109988e-003 1.17455784e-003
      -1.88391976e-004 -1.31039962e-003 8.02375202e-004 3.60785285e-004
      3.10057192e-004 0. 0. 0. 0. -6.20949722e-005 6.87282765e-004
      9.06783505e-004 -4.04090533e-005 -3.09678988e-004 -1.59736795e-004
      4.93529544e-004 -2.77489453e-004 -3.52358911e-003 -1.07558444e-003
      1.80852076e-003 -1.82446471e-004 -1.30824838e-003 -4.82794829e-004
      -1.70249713e-003 3.52909206e-004 -1.63177960e-003 1.21782313e-003
      -2.23698626e-005 0. -5.11690683e-004 9.45899446e-005
      -9.72803857e-004 -3.74023773e-004 -1.20721431e-003 5.41036425e-004
      -5.15561660e-005 1.66608072e-006 3.40497051e-003 -1.32917671e-003
      3.07473791e-004 1.47286523e-003 4.84161690e-004 1.96896447e-003
      1.23231323e-003 -7.99135742e-005 -2.96100101e-004 -9.18245001e-004
      -2.15931592e-004 -1.56636618e-003 9.21104394e-004 -7.08615407e-005
      5.22595190e-004 -8.45005561e-005 5.09367019e-005 2.05984950e-004
      -4.03617305e-004 -9.79442266e-004 2.01566680e-003 1.12136896e-003
      -2.52565369e-004 -5.87199320e-005 1.72335107e-003 6.46642759e-004
      4.85995115e-004 -9.39816819e-004 -5.48440206e-004 -7.83463998e-004
      -3.98078933e-004 -5.58863394e-004 -6.14440651e-004
      -8.13399616e-004 5.68818825e-004 8.58052575e-004 7.36617018e-004
      -5.72891789e-004 -2.21298633e-005 7.67052916e-005 -6.04023167e-004
      -1.62557582e-003 -2.13312000e-004 1.74322457e-003 -2.10043672e-003
      1.02450314e-003 2.76813982e-003 -1.86562596e-003 -3.00673040e-004
      0. 0. 5.33256352e-005 -2.70560966e-004 -1.02935336e-003
      1.03668950e-003 8.46209587e-005 -3.02971050e-004 -4.54760506e-004
      -5.56770479e-004 5.38383191e-003 -1.53055496e-003 -6.43929525e-005
      -3.71402799e-004 1.53306033e-003 4.28899439e-005 -6.72681083e-004
      -3.54770804e-004 -3.43820313e-004 -1.56868622e-003 4.60049981e-004
      3.20876017e-004 0. 1.06855039e-003 3.35585442e-004 0.
      -5.48034077e-005 0. -3.10474861e-005 1.72493586e-004
      -2.36635958e-003 -2.43453262e-003 4.44554782e-004 2.36978754e-004
      -1.48973631e-004 6.28993032e-004 8.36696243e-004 3.11600947e-004
      3.70882888e-004 -3.12081043e-004 -1.40233155e-004 -7.66664045e-004
      -1.15295930e-003 3.37824255e-004 -8.97488644e-005 1.35722366e-004
      -1.71124842e-003 -2.30830512e-004 -6.47795969e-004
      -2.76498176e-004 1.47137136e-004 -1.07453775e-003 1.92392012e-003
      1.10624288e-003 2.91792676e-005 5.78685431e-003 -1.65817607e-003
      -1.36070838e-003 -2.26591900e-003 6.30800714e-005 1.30633736e-004
      2.25544369e-004 9.82497731e-005 -3.42613239e-005 -2.77134427e-003
      2.81117711e-004 1.24406128e-003 -2.80666485e-004 -9.58931283e-004
      -1.38232333e-003 3.62556399e-004 -4.46887367e-004 7.75876761e-005
      9.41827093e-005 2.17513042e-003 1.14397561e-004 -4.12735913e-004
      -2.09715974e-004 4.08801658e-004 2.21204432e-003 -1.92445482e-003
      3.46600253e-004 2.29091127e-003 1.10134672e-004 -3.81861377e-004
      -6.56647200e-004 1.05535693e-003 -2.73819169e-004 8.91462914e-005
      3.28431284e-004 -3.04001733e-004 5.19337656e-004 7.86859673e-005
      7.92187988e-004 5.90406707e-004 1.93519794e-004 -9.22152423e-004
      0. 3.75719625e-004 1.04024028e-003 8.00128188e-003 7.99254849e-005
      -1.43160651e-004 1.24132421e-004 -1.71973457e-004 -1.60894776e-003
      8.67762174e-006 -3.24204331e-004 -1.16153271e-004 -6.59548503e-004
      -5.56032232e-004 -3.59145051e-004 5.91686949e-005 -2.54587667e-005
      -1.05486333e-003 2.55487481e-004 -4.60171519e-004 -3.58689576e-004
      4.88224905e-005 2.09562888e-004 4.61842545e-004 -4.30741056e-004
      -1.51970668e-003 -9.16166638e-004 4.44528589e-004 7.81598792e-004
      3.06659233e-004 -2.31437152e-003 -1.82346339e-004 -1.55414001e-003
      7.83613905e-006 -3.92102636e-004 5.60540881e-004 1.84245489e-003
      4.23650577e-004 -7.67953694e-004 1.21101853e-003 -2.49074609e-003
      -7.28811952e-004 -1.06271671e-003 4.74615546e-004 -6.24688750e-004
      -2.01097399e-004 2.64203903e-004 -3.14391829e-004 7.20750773e-004
      3.03096778e-004 -2.02437001e-003 2.40890053e-003 8.87302449e-004
      7.95588421e-004 0. 7.71357503e-004 -1.80023897e-003
      -9.29534493e-004 2.94411409e-004 -1.82406453e-004 -1.72495691e-003
      1.58745248e-003 -2.94847530e-003 -7.27812760e-004 1.13111327e-003
      1.48190605e-003 1.46088330e-003 -2.22052494e-003 0.
      -6.81414735e-004 -2.76681245e-003 2.33317539e-003 4.03238460e-004
      1.56444206e-003 -8.52870289e-004 -1.02006430e-004 9.08174668e-004
      2.26459248e-004 -4.30083492e-005 -5.80971304e-004 -1.65760415e-004
      4.63531323e-005 -1.08124164e-003 5.53470454e-004 -1.32859417e-003
      2.38844543e-003 -1.74381526e-003 -1.85189897e-003 -1.86664821e-003
      -3.49205715e-004 -1.41034566e-003 -1.90372940e-003
      -5.39833389e-004 -1.40979755e-004 1.07540120e-003 8.45155970e-004
      -1.16628486e-004 -5.71514647e-005 -4.90714912e-004
      -2.03015428e-004 4.64282784e-004 4.21482185e-003 -1.74497123e-004
      2.36471766e-003 1.94915722e-003 3.41826410e-004 2.76113678e-005
      -6.26904148e-005 -5.37751650e-004 -1.11259196e-005 1.47991243e-003
      7.85988930e-004 2.49033154e-004 -7.89973928e-005 -1.32724716e-004
      -9.74849827e-005 -4.10559333e-005 9.63181548e-004 -1.85701399e-004
      -8.34689941e-004 6.25976900e-005 1.90526678e-003 1.28200476e-003
      -2.48692697e-004 2.28067292e-004 5.24219940e-004 1.18686433e-003
      -6.44255269e-005 3.87448381e-004 1.19382958e-003 -1.66748161e-003
      6.21533662e-004 4.20752513e-005 -2.28603231e-003 -1.77510301e-004
      -2.60909926e-003 7.09989166e-004 -2.01853836e-004 1.98970694e-004
      -1.60626965e-004 1.83836761e-004 -7.73719046e-004 1.34904170e-003
      1.93713454e-003 2.06076005e-003 -1.33103691e-003 -1.39492564e-003
      -8.26790696e-004 1.41935361e-005 -4.32709727e-004 -1.34038227e-003
      -7.89263577e-004 6.43890409e-004 -3.72621114e-004 -5.00182032e-005
      -1.23291323e-003 -3.72476556e-004 2.86730879e-004 2.13479600e-003
      -7.61657313e-004 -6.14127959e-004 3.52401657e-005 -1.79835712e-003
      -8.81795131e-004 -2.33519040e-005 1.22816346e-004 7.62693526e-004
      4.07588959e-004 1.00426015e-003 4.98468813e-004 -3.70583439e-004
      1.38979172e-004 0. -1.12470333e-003 6.39983818e-006
      -5.64362097e-004 -1.02027343e-003 -1.66727350e-005
      -1.07688748e-003 1.19481228e-004 2.63557722e-005 2.85668411e-005
      -2.12172643e-004 1.44759964e-004 1.44697540e-003 2.62700091e-003
      0. -2.23698626e-005 -4.77202193e-005 -3.33454700e-005
      -1.15437794e-003 2.94311089e-004 4.96662396e-004 -3.54549149e-004
      -3.79019621e-005 -2.69544489e-005 -2.09603731e-005
      -1.68638115e-004 -1.38743999e-004 -1.30764456e-004 3.03353858e-003
      -3.43818800e-003 4.25580190e-003 -5.04444004e-004 -9.21682338e-004
      5.81242384e-005 4.99226153e-004 3.17469036e-004 1.66256342e-003
      -3.51846241e-003 -2.01947987e-003 -1.98193084e-004 7.67170241e-006
      -8.73356010e-004 1.17118179e-003 1.92262663e-003 6.14405493e-004
      7.67170241e-006 6.92457892e-004 4.96199122e-004 4.60889336e-004 0.
      1.63493241e-005 -5.57300693e-004 0. 1.89850893e-004
      5.81919041e-004 9.03180742e-004 -3.66753247e-003 2.29942985e-003
      -1.54338998e-003 -7.34771602e-005 7.47902610e-004 -1.27015670e-003
      3.52213305e-004 -1.36783952e-003 5.13782667e-004 -2.58708315e-004
      1.07121526e-003 -4.48449340e-004 3.08131770e-004 2.80299631e-004
      4.60795942e-004 -9.18982201e-004 -1.02819200e-003 2.09562888e-004
      2.02413299e-004 1.67233065e-005 2.23177904e-003 1.84484455e-003
      -1.94472680e-003 -1.30808260e-003 4.02824662e-005 3.48238536e-004
      -9.00103169e-006 8.43689486e-004 -1.63161429e-004 9.04618704e-004
      -2.69625569e-004 -8.29838536e-005 -2.47739861e-003
      -4.00444539e-003 -9.01492313e-004 -4.70169529e-004
      -3.10646952e-004 1.59150193e-004 2.51910038e-004 2.44462374e-003
      3.10300314e-003 1.13660749e-003 5.12018683e-004 -5.30573539e-004
      1.33107329e-004 -2.06390931e-003 -4.02889476e-004 1.54735520e-004
      -3.33454700e-005 2.03628006e-004 1.93268192e-004 -4.83453681e-004
      7.67170241e-006 -2.06732933e-004 0. -7.44067773e-004
      3.56224104e-004 1.90518753e-004 -1.36523845e-003 3.15874978e-003
      5.18802612e-004 -2.17995199e-004 5.84465335e-004 6.23057946e-004
      2.56657921e-004 -2.13768813e-004 -4.92463761e-004 3.70707305e-004
      4.13948110e-005 -1.80492930e-006 -2.45495059e-004 -1.13569014e-003
      9.66855368e-005 -3.52440373e-004 2.62612994e-005 -7.16499926e-004
      -4.81075229e-004 -2.70767487e-004 2.54454440e-003 -3.11663677e-003
      9.00271873e-004 2.64759263e-004 5.00565104e-004 5.07089018e-004
      1.49881502e-003 -4.34333785e-003 1.70595024e-003 2.72685866e-004
      2.86351366e-004 4.63531323e-005 1.64449404e-004 4.28122963e-004
      -8.44648312e-005 -1.12113172e-004 -2.57971005e-005 8.26499854e-006
      -1.59665389e-004 1.44308514e-003 -1.18075009e-003 -7.37110211e-004
      -4.00485151e-005 -1.59570074e-004 7.16325594e-004 2.28778110e-003
      -7.35741341e-004 3.55482189e-004 -8.49016651e-004 8.11691687e-004
      -8.26588424e-004 7.78611138e-005 1.53340312e-004 1.85956902e-004
      2.36888812e-003 1.28425716e-003 -4.88873338e-004 2.86719180e-004
      3.18869599e-004 -2.41620559e-003 -2.53259344e-003 9.66765685e-004
      8.04800948e-004 3.86756728e-004 -1.33919367e-003 6.82655722e-004
      2.62206420e-004 -7.38915289e-004 2.05984950e-004 2.74654274e-004
      -3.90194182e-004 2.63747480e-003 4.49418294e-004 1.50631648e-004
      -9.20929688e-006 -2.11063214e-003 -4.20291501e-004
      -5.51635749e-005 2.98507628e-004 -1.32588681e-003 -6.89798559e-004
      6.18958555e-004 -8.10785932e-005 -5.09943871e-004 8.42554509e-005
      1.61285760e-004 2.48480029e-003 9.35849035e-004 8.85541303e-005
      -6.64046616e-004 0. -1.13477011e-003 1.51723076e-003
      -2.10046163e-003 -1.61063415e-003 -3.40923871e-004 5.45467716e-004
      -8.93534860e-004 -1.21638550e-004 2.53197941e-004 8.02557974e-004
      9.24896623e-004 7.63268967e-004 -1.14409975e-003 -1.03576540e-003
      -8.46560695e-004 -2.68376258e-004 7.87457684e-005 -1.17175770e-003
      -2.75885081e-003 -1.80868211e-003 1.06352854e-004 -9.60171572e-004
      2.69117020e-003 -1.75066991e-004 1.45351214e-005 1.26080634e-003
      5.25408366e-004 1.95689569e-003 1.77155389e-003 -1.73450098e-004
      -3.22881300e-004 1.77462789e-004 5.34928440e-005 -9.22472827e-005
      2.69130076e-004 -3.28176236e-003 3.57668032e-005 5.05721313e-004
      -4.13405796e-005 -4.36697592e-004 5.28731965e-004 7.42440869e-004
      -8.86533526e-004 -1.26728395e-004 1.82705116e-004 1.92890162e-004
      2.50046105e-005 -3.84704545e-005 -2.33970350e-004 1.53935573e-004
      1.48125328e-004 8.09603662e-005 -2.01678500e-004 -1.03676738e-003
      -7.90017511e-005 5.40099922e-004 -2.81141838e-004 3.79545934e-004
      -4.96572429e-005 -4.41150944e-004 4.38150164e-004 2.93481955e-003
      2.53669801e-003 -2.73496495e-004 9.02960019e-005 2.44125514e-003
      -1.90971332e-005 -5.94628917e-004 -1.16450724e-003
      -2.10894039e-004 2.73479527e-004 1.14789535e-003 -1.25752122e-003
      2.73673184e-004 -1.08704990e-005 -1.88478414e-004 5.08907763e-003
      -1.77990727e-003 -7.98905850e-004 3.23981280e-004 -1.12145470e-004
      -6.11386669e-004 -1.26348669e-003 2.06135650e-004 0.
      -3.19728511e-004 -2.70138466e-004 -3.17280297e-003 3.91457230e-004
      -1.14060205e-003 9.05160323e-006 -3.57071549e-004 -2.85027607e-004
      -4.12341120e-004 1.19542889e-003 3.90301488e-004 1.60162279e-003
      -1.45500794e-003 -6.92188696e-005 1.45265122e-003 -2.41836955e-004
      -6.67088199e-004 -5.87131246e-004 -2.74567888e-003
      -3.45782581e-004 1.58220460e-003 -1.35508971e-003 -1.05048169e-003
      1.81456725e-003 9.47548426e-004 -5.25861396e-004 1.12509639e-004
      1.13777036e-003 1.19198092e-004 3.03037954e-003 1.10771577e-003
      -1.90804747e-003 0. 0. 2.18240515e-004 -1.63817604e-004
      8.82907188e-004 -6.63293176e-004 -3.34902725e-004 0.
      -7.99511236e-006 1.43075376e-004 -4.95138986e-004 3.81968101e-004
      2.87586336e-005 1.64603589e-005 2.14662563e-004 3.52638279e-004
      -1.22973265e-003 -2.43653951e-004 -6.98390708e-004
      -4.21616685e-004 6.46937697e-004 2.59902503e-004 2.89501995e-003
      -2.12097145e-003 -1.59570074e-004 -1.21416512e-003
      -2.77156156e-004 2.26977820e-004 -1.92152557e-003 1.93824142e-003
      3.50361201e-003 8.49807344e-004 7.52897584e-004 -8.93983874e-004
      -6.37639139e-004 -5.28505989e-005 -1.30496605e-003 4.58819821e-004
      6.19119674e-004 -1.23589300e-003 1.09709756e-004 4.02636797e-004
      6.46387271e-005 -2.28360458e-003 1.00309460e-003 8.54244863e-004
      -3.45782581e-004 -4.32605702e-005 -2.09165242e-004
      -3.76690499e-004 -9.31754912e-005 3.55693162e-004 2.70414772e-003
      1.07359607e-004 1.45527662e-003 -1.69925729e-003 -1.52565655e-003
      -1.68969005e-003 8.32825375e-004 -8.30809149e-005 6.62599487e-005
      -4.26176965e-004 1.36184227e-003 3.24513414e-004 -9.63585480e-005
      -1.41832817e-004 0. -7.67934020e-004 -3.34988395e-003
      -1.77911960e-003 -1.49917279e-004 -9.64892271e-004 0.
      -2.12172643e-004 4.30062501e-004 -5.56942890e-004 5.91306540e-004
      2.17234599e-004 -2.12172643e-004 6.27477362e-004 -2.01729665e-004
      1.95638835e-003 1.20881095e-003 -4.85361204e-004 1.49483071e-003
      4.71345498e-004 -7.19274831e-005 3.91011243e-004 -1.32384850e-003
      -2.46776338e-003 -2.78309999e-005 -3.71402799e-004
      -1.04624196e-003 1.53970439e-004 1.01809227e-003 -2.41370071e-004
      -1.17363270e-004 5.26786374e-004 -5.94384037e-004 4.59862407e-003
      1.24550090e-004 -1.29642943e-003 5.60534012e-004 -1.07325276e-003
      1.43093278e-003 3.67197237e-004 -3.69092042e-004 -4.22717957e-003
      2.24978733e-003 9.87356761e-004 -1.55602547e-003 -1.04734511e-003
      5.43477800e-005 1.89875520e-003 -1.82165951e-003 -9.48234985e-004
      -1.21261005e-003 7.46100151e-004 0. 0. 4.23836354e-005
      4.73934179e-003 5.17485751e-005 1.27034413e-003 -2.12369300e-003
      -1.75331352e-005 -1.25436229e-004 -1.55592832e-004 1.34406076e-003
      6.73437200e-004 -8.86854425e-004 1.46720311e-004 5.92257536e-004
      -1.58664669e-004 1.54898342e-004 -4.16042778e-004 6.27795744e-005
      -3.23972956e-004 -2.80418637e-004 -5.02663839e-004 2.18522293e-003
      -8.47789459e-004 -1.10941823e-003 -8.02082010e-004
      -1.17593829e-003 2.58415210e-004 -3.88247281e-004 1.49388856e-003
      -3.85274296e-004 3.12543067e-004 -4.37599432e-004 -1.77186332e-004
      3.66085878e-004 -2.79541826e-004 -8.14065803e-004 -3.42723820e-006
      -5.77330793e-005 9.47981491e-004 6.39956212e-004 0.
      -3.42723820e-006 1.04005769e-004 9.23263899e-004 2.53028562e-003
      0. 0. 0. -6.75513365e-005 -1.23177728e-004 8.30146892e-005
      -8.98322542e-005 -3.33454700e-005 -1.66727350e-005
      -7.21078322e-005 -1.31944296e-004 -1.66727350e-005
      -1.17530064e-004 0. -1.51965374e-004 8.53399921e-004
      -4.98390384e-003 7.86497141e-004 -5.03368035e-004 1.26044033e-004
      -1.66727350e-005 4.13504225e-004 1.49100297e-003 -1.86585239e-003
      7.88294186e-004 2.86365743e-004 0. 0. 0. -1.66727350e-005
      2.27575103e-004 0. -3.33454700e-005 8.67762174e-006 0. 0. 0.
      -2.00999730e-005 -3.44747241e-005 0. 0. 6.25979374e-005
      -4.97650646e-004 -2.92602694e-004 -1.10266113e-003
      -2.07853140e-004 -6.05256500e-005 -1.56451098e-003 1.61583733e-003
      -3.09724361e-003 8.67762174e-006 -1.08165936e-004 2.97074765e-003
      -1.15999253e-003 9.36389988e-005 -1.09486541e-006 2.15505817e-004
      5.62841818e-003 -1.28025553e-004 0. -3.98140510e-005
      -7.08615407e-005 2.97460845e-003 1.94787292e-003 6.39752325e-005
      2.51468038e-004 0. -3.10474861e-005 0. 1.40268137e-004
      -2.59640743e-004 2.53405451e-004 -1.66727350e-005 -6.27880392e-004
      -1.18773687e-003 -1.74497708e-003 -2.57996423e-003 2.88772881e-005
      1.81401876e-004 4.07552725e-004 6.71763381e-004 -1.79178361e-003
      -1.75634574e-003 1.15513778e-003 -4.43882484e-004 -3.33454700e-005
      -6.66909400e-005 -6.66909400e-005 2.26533139e-005 -2.49900098e-004
      5.95901929e-006 -1.17838397e-004 2.09562888e-004 -7.99511236e-006
      -5.77330793e-005 2.70022749e-004 2.09562888e-004 -1.58781695e-004
      8.28663542e-005 -1.86401943e-004 -3.53330077e-004 1.62206183e-004
      -1.29240798e-003 7.88191624e-004 3.20538180e-004 -1.82376418e-004
      -1.12226140e-003 3.25296802e-004 -8.21613241e-004 2.26868782e-004
      -8.61583918e-004 6.45278546e-004 -9.12096933e-004 8.57405656e-004
      1.01660902e-003 -1.17013964e-003 3.23810033e-003 5.98748273e-004
      5.25038377e-006 -1.03463644e-004 1.13349983e-004 -3.25976731e-003
      -3.72984214e-003 -1.45076599e-003 1.86140402e-004 0.
      -1.01137564e-004 1.49892832e-004 -1.77375041e-004 4.81992116e-004
      2.70475517e-004 0. -2.30830512e-004 -5.04264666e-004
      -1.57461895e-004 -5.65757327e-005 1.26402650e-004 6.46889443e-004
      -3.10474861e-005 5.72123623e-004 6.33804942e-004 9.64397041e-005
      -4.15130286e-004 -1.76242815e-004 6.12482545e-004 1.06325315e-003
      -2.58807384e-004 -1.68638115e-004 -7.30162661e-004
      -3.00158252e-004 -7.55355359e-005 0. 0. -3.98140510e-005
      7.95003361e-005 0. 4.42264689e-004 4.49078128e-004
      -2.15602617e-004 1.99092133e-003 2.60780426e-003 1.17297017e-003
      -7.78154936e-005 1.97788486e-005 -8.26606818e-004 -7.77808949e-004
      -5.72994526e-004 2.40396289e-003 -2.00879644e-004 -6.89981272e-004
      -1.45702693e-003 -1.77786779e-003 -1.29109167e-003 2.82034780e-005
      -2.81176937e-004 -5.21454611e-004 -3.85133637e-004 0.
      -6.95809256e-004 -4.65536650e-005 -1.24112586e-003
      -4.94450273e-004 -1.08269625e-003 -5.05790347e-004
      -5.78820654e-005 1.89577765e-003 1.07671460e-003 -5.18002023e-004
      -1.01174437e-003 -6.40147700e-005 2.69974727e-004 3.85915424e-004
      1.09877391e-003 -6.41125545e-004 1.98564772e-003 -1.80234876e-003
      7.95126252e-004 1.60258132e-004 2.98005529e-004 1.59424701e-004
      6.66833774e-004 2.75602535e-004 8.22191651e-004 5.12223225e-004
      1.01282017e-003 -2.69664801e-004 1.16846024e-003 1.73582474e-003
      3.19526371e-005 1.73693569e-003 3.41134990e-004 -4.79798618e-004
      1.07659507e-004 -1.51448970e-004 -6.14618999e-004 -5.82981680e-004
      -4.40176518e-004 1.14621292e-003 -2.48523126e-003 7.36916030e-004
      1.84218989e-005 7.13146525e-004 -2.05823948e-004 -3.34194745e-004
      5.99614170e-004 1.62489922e-003 -2.29159882e-003 2.08387326e-004
      1.04903046e-003 -1.87716843e-003 1.92097155e-003 9.33701056e-004
      -3.14857898e-004 -2.43668375e-003 -8.09129968e-004
      -1.66435598e-003 0. 7.31229491e-004 -3.52285278e-004
      -1.19833385e-004 -1.11259171e-004 -9.31696377e-006
      -1.21938065e-005 -1.66727350e-005 1.47335837e-003 6.15719589e-004
      1.24743194e-004 -2.98119034e-004 -3.26351001e-004 0. 0.
      -3.90425957e-005 2.02836818e-004 -1.33252889e-003 6.87120308e-004
      1.81173265e-004 0. 1.77269118e-004 -1.36114890e-004
      -1.15349125e-004 -1.63864694e-004 -2.39069122e-004 6.84840255e-004
      -1.02321967e-003 -6.96332645e-005 -6.64500403e-004 1.34739064e-004
      1.15650555e-003 -2.09317557e-004 6.08958595e-004 1.99920396e-004
      -2.81718938e-004 -8.76656759e-006 0. -1.66727350e-005
      -3.10474861e-005 7.95112937e-005 -7.29008054e-004 2.11360119e-003
      1.23397191e-003 -1.01029276e-004 -2.69625569e-004 -1.76633228e-004
      -4.64811863e-004 -2.22289748e-003 -1.96452159e-003 4.97926783e-004
      8.21247639e-004 2.12514889e-003 3.58425197e-003 1.53577057e-004
      2.16369008e-004 5.02057606e-004 3.98585200e-003 7.47851736e-004 0.
      0. 1.15036790e-004 -1.70968589e-003 2.97990278e-004
      1.57585891e-003 -3.33454700e-005 0. -8.33636732e-005
      -9.27590416e-004 -2.59025767e-003 8.25127296e-004 -1.14724657e-003
      0. -4.77202193e-005 -1.66727350e-005 -2.64770188e-003
      -9.11088020e-004 -1.61048752e-004 1.75178604e-004 -5.00182032e-005
      -5.00182032e-005 -3.42723820e-006 2.52205442e-004 -4.71105537e-004
      -5.65048249e-004 -5.00182032e-005 -1.66727350e-005 0. 0.
      -7.87677054e-005 -5.00182032e-005 -1.66727350e-005 0.
      -3.10474861e-005 -5.00182032e-005 0. 0. -6.43929525e-005 0.
      -4.90873063e-005 -1.71952357e-003 1.63142488e-003 -5.85702772e-004
      -2.18337984e-004 -1.26550192e-004 -4.67733262e-005 7.99133501e-004
      -5.71872864e-004 -4.46626655e-004 -1.09963214e-004
      -1.28233875e-003 -1.62953418e-003 -3.55207571e-003
      -3.82555270e-004 8.11469392e-004 -3.81638110e-003 -3.61649814e-004
      -2.04087747e-003 0. 0. 2.40416126e-003 3.62479768e-004
      -1.26046315e-003 -2.57911999e-003 -8.08618715e-005 0.
      -3.01289838e-005 3.14102904e-003 3.16997315e-003 -4.60364303e-004
      1.31739781e-003 -4.96572429e-005 -5.46356277e-005 5.43756934e-004
      1.68356602e-003 9.31059185e-004 -3.68383917e-004 -2.64608563e-004
      4.22397308e-004 -6.17693178e-004 2.86167109e-004 1.12374441e-003
      -8.08192068e-004 -1.34715970e-004 -3.40327329e-004
      -3.10474861e-005 -3.70661495e-004 5.59475913e-004 2.11535138e-004
      1.90470455e-004 -4.49617255e-005 7.23670528e-004 -4.07877553e-004
      -5.25554118e-004 -7.36034417e-004 3.07768030e-004 1.31223724e-005
      -1.64193829e-004 -2.79390049e-004 3.08495271e-003 2.69278232e-003
      1.56420196e-004 -2.19135967e-004 -5.05395292e-005 -1.19468597e-004
      9.27603280e-004 -5.51486337e-005 -9.87126725e-004 -3.83618812e-004
      -1.90088656e-004 7.32272805e-004 1.42113917e-004 1.19973280e-004
      -1.03245629e-003 1.14163361e-003 3.15659156e-004 2.43473289e-004
      -9.18062637e-004 -3.90799576e-003 1.20465097e-003 -3.86707624e-003
      7.98471388e-004 -1.11945008e-003 -1.05709378e-005 8.08119774e-004
      -3.20602936e-004 1.76418200e-003 2.19987892e-003 6.68675813e-004
      2.65451265e-004 2.60234607e-004 4.24765894e-004 -1.77666589e-004
      3.07001267e-003 5.50185388e-004 1.08990155e-003 -6.15735422e-004
      1.36698902e-004 -1.45593949e-003 -1.03234104e-003 -9.49793612e-005
      -1.06501058e-004 6.31822506e-004 7.65183300e-004 2.52830563e-003
      8.21175985e-004 -1.73944153e-003 1.23826333e-003 3.70325637e-004
      1.95111570e-004 4.92466170e-005 5.13187319e-004 -4.45114216e-004
      -4.86670993e-004 -2.09024898e-003 -2.22819089e-003
      -8.42127192e-004 -3.54843469e-005 -1.26916391e-003 1.66794646e-003
      -7.76397181e-004 -2.82543828e-004 5.68229880e-004 -2.10554121e-004
      1.27646956e-003 -1.04016624e-003 -4.13639791e-004 -2.82060122e-004
      7.90613267e-005 1.59087381e-003 3.47004714e-003 6.31057555e-005
      7.42702468e-005 -2.66919851e-005 2.72255391e-004 3.91114689e-003
      -2.69625569e-004 2.02835417e-005 1.12027898e-004 -2.13463587e-004
      -3.47058522e-004 1.52132823e-003 -5.34454412e-005 -8.16350104e-004
      -6.19263796e-004 1.74771103e-005 2.16199100e-004 -4.87051293e-004
      -5.29269921e-004 -1.85701399e-004 -2.54393017e-005
      -2.43815084e-004 -2.84244283e-003 2.50353268e-003 1.46200648e-003
      -1.08499906e-003 -4.89665144e-005 -8.12602884e-005
      -3.70684284e-004 -1.88137492e-004 -2.51207431e-003 6.85488747e-004
      0. -1.75331352e-005 -2.62997037e-005 -2.78392137e-004
      -3.09449097e-004 -5.24338917e-004 -3.10474861e-005
      -1.66727350e-005 -2.16748886e-004 -2.97771767e-004
      -3.10474861e-005 -1.38719886e-004 0. 0. -2.20850270e-004
      -2.47430406e-003 6.90473767e-004 1.30342260e-005 -8.29856290e-005
      2.14557906e-004 -2.29499114e-004 9.34360840e-004 -1.48712483e-004
      -3.71501385e-003 -1.85701399e-004 1.10308186e-003 -3.05527868e-003
      -2.29798700e-003 1.35649359e-004 8.34060542e-004 -1.06895121e-003
      7.93389263e-005 3.39719397e-003 0. -3.10474861e-005
      1.02822657e-003 3.03844316e-003 -5.98549377e-004 6.27018628e-004
      2.05984950e-004 -3.10474861e-005 -6.52533563e-005 -1.00036406e-004
      2.91314500e-004 8.31138983e-004 1.19776829e-004 0.
      -1.30775559e-004 3.57725185e-005 7.05629238e-004 -1.15756865e-003
      4.23428050e-004 2.05747347e-004 0. -1.44215664e-004
      1.36359260e-004 -1.15591807e-004 -7.62053940e-004 8.22781702e-004
      -3.42723820e-006 -9.09615119e-005 -8.76656759e-006
      -3.44747241e-005 -2.23698626e-005 -9.31424511e-005
      -7.65867590e-005 -9.63008424e-005 -6.89494482e-005
      -5.00182032e-005 -8.76656759e-006 8.01290662e-005 -3.42723820e-006
      -3.98140510e-005 -1.21938065e-005 -6.07899448e-004
      -1.25660430e-004 2.42096861e-003 -4.27930732e-004 -5.84441332e-005
      5.93861041e-004 -2.94618309e-004 1.91070212e-004 -2.71418918e-004
      9.05160323e-006 7.80185102e-004 1.44793699e-003 -3.22979549e-003
      -3.49166396e-004 1.39420590e-004 4.28602681e-004 -1.93700904e-003
      2.20714812e-003 -3.42723820e-006 1.43019870e-005 -9.98426345e-004
      -5.26542682e-003 1.30823732e-003 1.33263040e-003 -7.11989880e-004
      1.31293869e-004 -6.13105483e-004 -5.01071481e-005 -6.25029716e-005
      -5.76358056e-004 -3.78083314e-005 4.29933454e-004 -4.52402135e-004
      -3.61844752e-004 3.19502084e-003 -1.11851993e-003 1.56577211e-003
      8.24818504e-004 2.55944004e-004 7.30288564e-004 1.29797857e-003
      -4.56618494e-004 -1.14197482e-003 1.03283359e-003 1.33567402e-004
      7.96911481e-004 7.72971194e-004 2.16087064e-004 -6.98402699e-004
      -5.39707718e-004 1.37856754e-003 -6.38647645e-004 -1.06491018e-004
      -9.62689635e-004 1.04267756e-003 -1.30697721e-004 -2.88125411e-005
      -1.00579846e-003 -5.06259035e-004 -1.01607840e-003
      -6.25600223e-004 1.30493601e-003 -2.00902321e-003 -1.70842730e-004
      -1.02371140e-003 -6.71645335e-004 -3.82980506e-004
      -7.91747472e-004 3.32756026e-004 -4.39823925e-004 -2.34444602e-003
      -3.11523979e-003 -8.59939202e-004 5.82247507e-004 -8.74871112e-005
      -3.07098473e-003 -8.62726534e-004 0. -7.49322760e-004
      1.55905657e-003 4.13842034e-004 -3.87929758e-004 6.21985819e-004
      5.59912529e-004 7.47342128e-004 2.77423591e-004 1.54628360e-003
      -5.60918066e-004 -9.25681612e-004 1.74206725e-004 -1.35292648e-004
      2.96389713e-004 2.25434802e-003 5.67959913e-004 -2.89477699e-004
      -5.58813394e-004 5.95722115e-004 4.21042496e-004 9.96564166e-004
      1.69958675e-003 -2.99033156e-004 2.35464121e-003 -6.42846338e-004
      5.25360811e-004 -2.33485620e-003 1.57382153e-003 -5.97944716e-004
      1.76072237e-004 8.39405868e-004 2.37576896e-003 -2.25688680e-004
      9.64299325e-005 1.67684176e-003 1.35524431e-004 -8.53278383e-004
      5.45736693e-004 1.48949821e-005 -1.02002894e-004 -1.56311973e-004
      -6.16107951e-004 -1.52943574e-003 9.68750246e-005 6.32218507e-005
      -3.74964293e-005 6.73691044e-004 2.20675909e-004 -9.45839623e-004
      4.03056765e-004 8.37841653e-004 -1.39059755e-003 1.50834525e-003
      -1.83863775e-003 6.74085866e-004 6.99539552e-004 1.77924323e-003
      -3.28824826e-004 -2.02374140e-004 6.72715250e-004 -7.69420012e-007
      1.47452854e-004 1.82340445e-004 3.90566856e-004 -1.29748121e-004
      1.10953379e-005 -8.95277539e-004 1.15721417e-003 -9.10933479e-004
      2.89255724e-004 9.40184051e-004 0. 5.26769785e-004 1.12368062e-003
      1.90885726e-003 -3.36848025e-004 -7.17346848e-004 -1.19540826e-004
      2.03692485e-004 4.09211410e-004 -1.22839963e-004 -7.96428241e-004
      -1.99125265e-003 9.59563069e-004 -1.48579973e-004 -7.73873471e-004
      -7.09347543e-004 -2.77205487e-003 1.56226160e-003 1.19055551e-003
      -1.24156673e-003 -1.13667420e-003 -7.67673890e-004
      -7.05114857e-004 -7.43898636e-005 2.44465424e-004 4.33167355e-004
      1.30651842e-005 1.61155287e-004 1.59631728e-003 -4.56696347e-004
      -1.56363327e-004 -1.66727350e-005 3.21050058e-004 6.65837608e-004
      -9.23343119e-004 1.26571138e-003 -1.52049423e-003 1.17233081e-003
      -5.94079844e-004 1.07987726e-003 9.97949974e-004 3.82928702e-004
      7.33734167e-004 -9.17200581e-004 3.25891282e-003 2.08532531e-003
      0. 0. -1.05184806e-003 5.72431134e-004 -2.17092922e-003
      4.82610689e-004 -4.77202193e-005 -3.10474861e-005 -1.26487925e-004
      5.33465005e-004 -4.38960065e-004 6.80426310e-005 -9.93432594e-004
      0. -8.21949434e-005 -5.40784269e-004 1.78301381e-003
      -1.20504957e-003 1.54927926e-004 2.22604765e-004 -3.10474861e-005
      -1.49629239e-004 -2.46588141e-004 -6.25247660e-004
      -5.83954272e-004 -5.08974306e-004 -9.31424511e-005
      -4.77202193e-005 -3.98140510e-005 -8.43559392e-005
      -2.36848864e-004 -4.82385018e-004 -7.87677054e-005
      -5.00182032e-005 3.30348739e-005 -2.23060651e-005 -3.10474861e-005
      7.60372568e-005 -2.99509935e-004 -6.66909400e-005 6.64886247e-005
      8.93850374e-005 -1.55104371e-003 -3.79242410e-004 -3.10244155e-004
      -1.85701399e-004 1.27813115e-003 -1.26155355e-004 -1.94529246e-004
      -5.00853639e-004 1.93896540e-005 2.28686980e-003 -5.38743392e-004
      -1.32052810e-003 -1.24875456e-004 1.05847290e-003 -2.83444603e-003
      -4.42923140e-003 -1.40414701e-003 -3.45782581e-004 0.
      -1.75849389e-004 -1.14346726e-003 -1.59862952e-003 1.83166959e-003
      8.37943371e-005 -3.42723820e-006 -2.16965316e-004 -1.27688181e-004
      -4.89652855e-004 1.00296189e-003 -4.72058397e-004 3.45370907e-004
      1.04940066e-003 -3.75126489e-004 3.43326991e-003 5.41873625e-004
      1.36388140e-003 7.21457473e-004 2.94155761e-004 3.43692664e-005
      -1.69575692e-003 2.61501735e-003 7.91300612e-004 -3.68513516e-004
      7.33569206e-004 1.55348540e-003 1.15821301e-003 9.09640570e-004
      -3.51228414e-006 2.37502551e-004 7.70070881e-004 6.75638614e-004
      5.04017575e-004 4.55280126e-004 -6.20649487e-004 -6.02290500e-004
      -4.77202193e-005 -1.45066748e-004 7.15361166e-005 -3.73324403e-003
      -1.30624196e-003</_></support_vectors>
  <decision_functions>
    <_>
      <sv_count>1</sv_count>
      <rho>2.7912428077146895e-001</rho>
      <alpha>
        1.</alpha>
      <index>
        0</index></_></decision_functions></my_svm>
</opencv_storage>
